Key: conv3d_21/conv3d_21/bias:0
Value shape: (128,)
Value:
[-0.02368008  0.00260009  0.00021598 -0.02069036 -0.0345907   0.00277017
  0.00025388  0.03401251  0.00997882 -0.01827095 -0.00117375 -0.0511943
  0.01841941  0.01887281 -0.01239898 -0.01899793 -0.00350125 -0.03223828
 -0.0040145  -0.03748838 -0.03771139  0.00178782 -0.01193643  0.04179564
  0.02234066 -0.00300838  0.00429277 -0.02286258 -0.00127066  0.02042811
  0.00827288  0.02328866 -0.02642559 -0.03869991 -0.0114888   0.02670858
 -0.02842992  0.02703867  0.019393   -0.00405698 -0.01262438 -0.02572821
 -0.00414949 -0.04898921 -0.00511826 -0.02257443 -0.00069194  0.02781091
  0.0227241   0.03231792 -0.00667245 -0.04847673  0.00189295 -0.04849327
 -0.01037004  0.03822084 -0.00759352 -0.03072491 -0.03963619 -0.0047342
  0.03435439 -0.0303466   0.02878756 -0.02862068  0.01511745 -0.01592083
 -0.02128433  0.0173308   0.01285937 -0.04256882  0.01163642 -0.00308429
 -0.00531959 -0.04759818  0.02181217  0.01070457 -0.01827751  0.00871524
  0.00318335  0.06025252 -0.02377634 -0.02830231  0.00644454 -0.04250381
  0.03308853 -0.03477214 -0.06298592  0.01300415  0.05744815 -0.01776137
  0.00558472 -0.02501785  0.02914403 -0.02776133  0.05591033 -0.00260003
 -0.03054109 -0.00503893 -0.02165866  0.04538057 -0.01544781  0.00241536
  0.01528684 -0.01336201 -0.00630529  0.01290594 -0.02613496  0.04314339
 -0.04164457 -0.04610431 -0.00330328 -0.02643297  0.01882195 -0.02560755
  0.06198903 -0.00460702 -0.05907005 -0.02228603 -0.01651322 -0.03489131
  0.04296467 -0.00998738  0.0031258  -0.04403156 -0.01256294  0.039344
  0.00290927 -0.00970652]
Flattened value shape: (1, 128)
Flattened value:
[[-0.02368008  0.00260009  0.00021598 -0.02069036 -0.0345907   0.00277017
   0.00025388  0.03401251  0.00997882 -0.01827095 -0.00117375 -0.0511943
   0.01841941  0.01887281 -0.01239898 -0.01899793 -0.00350125 -0.03223828
  -0.0040145  -0.03748838 -0.03771139  0.00178782 -0.01193643  0.04179564
   0.02234066 -0.00300838  0.00429277 -0.02286258 -0.00127066  0.02042811
   0.00827288  0.02328866 -0.02642559 -0.03869991 -0.0114888   0.02670858
  -0.02842992  0.02703867  0.019393   -0.00405698 -0.01262438 -0.02572821
  -0.00414949 -0.04898921 -0.00511826 -0.02257443 -0.00069194  0.02781091
   0.0227241   0.03231792 -0.00667245 -0.04847673  0.00189295 -0.04849327
  -0.01037004  0.03822084 -0.00759352 -0.03072491 -0.03963619 -0.0047342
   0.03435439 -0.0303466   0.02878756 -0.02862068  0.01511745 -0.01592083
  -0.02128433  0.0173308   0.01285937 -0.04256882  0.01163642 -0.00308429
  -0.00531959 -0.04759818  0.02181217  0.01070457 -0.01827751  0.00871524
   0.00318335  0.06025252 -0.02377634 -0.02830231  0.00644454 -0.04250381
   0.03308853 -0.03477214 -0.06298592  0.01300415  0.05744815 -0.01776137
   0.00558472 -0.02501785  0.02914403 -0.02776133  0.05591033 -0.00260003
  -0.03054109 -0.00503893 -0.02165866  0.04538057 -0.01544781  0.00241536
   0.01528684 -0.01336201 -0.00630529  0.01290594 -0.02613496  0.04314339
  -0.04164457 -0.04610431 -0.00330328 -0.02643297  0.01882195 -0.02560755
   0.06198903 -0.00460702 -0.05907005 -0.02228603 -0.01651322 -0.03489131
   0.04296467 -0.00998738  0.0031258  -0.04403156 -0.01256294  0.039344
   0.00290927 -0.00970652]]