Key: conv3d_22/conv3d_22/bias:0
Value shape: (128,)
Value:
[-0.0810164  -0.06116691 -0.01038618 -0.02752931 -0.03284659 -0.05737383
 -0.01477183  0.00862919  0.02194311 -0.01749972  0.03766631 -0.04086602
 -0.01989017 -0.00144547 -0.06329343 -0.04785382 -0.02868851  0.01384508
 -0.00779844  0.02849484 -0.06187639  0.03865675 -0.01245137 -0.04543586
 -0.02294911 -0.01963853  0.08158011 -0.0204776  -0.01546946  0.00189026
  0.00758884 -0.03810691 -0.00778129  0.06645247  0.0796639  -0.01703124
 -0.00350372  0.02740414  0.01611365  0.06980309 -0.00871778 -0.01926093
 -0.04585016 -0.02126684 -0.06946807 -0.03908268 -0.09948426  0.01509545
 -0.05779605 -0.0154187   0.01893912 -0.01060594 -0.03641926  0.03367592
  0.05360941 -0.04060408 -0.04508644 -0.05617676 -0.05180587  0.01291454
  0.04777792 -0.02046429  0.01623015  0.0086324  -0.03350329  0.00063379
 -0.04464976 -0.06417626  0.01156905 -0.00029073  0.0253333  -0.00068147
 -0.0626197   0.00850968  0.00623904 -0.0390952   0.05101725  0.03046074
  0.0216627  -0.05955575 -0.0537333   0.02004347 -0.05299938 -0.04378216
 -0.01517957 -0.01281362  0.01668604 -0.04149311 -0.0583118   0.03681894
  0.04554231 -0.00387828 -0.02529059  0.00588422 -0.0810186  -0.08073502
  0.00220337  0.02297156 -0.02113208 -0.01320533 -0.03382     0.00934649
  0.08976899 -0.01622188 -0.05833168  0.01340196  0.02134469 -0.07283252
 -0.01230493 -0.03719757 -0.04737397 -0.00105348 -0.02014168 -0.04044725
 -0.03376176 -0.08549416 -0.03415827 -0.02946823  0.0567629   0.00969299
 -0.05161325  0.00598442  0.04665911 -0.04259302 -0.03100142 -0.03647018
 -0.03390839 -0.04676677]
Flattened value shape: (1, 128)
Flattened value:
[[-0.0810164  -0.06116691 -0.01038618 -0.02752931 -0.03284659 -0.05737383
  -0.01477183  0.00862919  0.02194311 -0.01749972  0.03766631 -0.04086602
  -0.01989017 -0.00144547 -0.06329343 -0.04785382 -0.02868851  0.01384508
  -0.00779844  0.02849484 -0.06187639  0.03865675 -0.01245137 -0.04543586
  -0.02294911 -0.01963853  0.08158011 -0.0204776  -0.01546946  0.00189026
   0.00758884 -0.03810691 -0.00778129  0.06645247  0.0796639  -0.01703124
  -0.00350372  0.02740414  0.01611365  0.06980309 -0.00871778 -0.01926093
  -0.04585016 -0.02126684 -0.06946807 -0.03908268 -0.09948426  0.01509545
  -0.05779605 -0.0154187   0.01893912 -0.01060594 -0.03641926  0.03367592
   0.05360941 -0.04060408 -0.04508644 -0.05617676 -0.05180587  0.01291454
   0.04777792 -0.02046429  0.01623015  0.0086324  -0.03350329  0.00063379
  -0.04464976 -0.06417626  0.01156905 -0.00029073  0.0253333  -0.00068147
  -0.0626197   0.00850968  0.00623904 -0.0390952   0.05101725  0.03046074
   0.0216627  -0.05955575 -0.0537333   0.02004347 -0.05299938 -0.04378216
  -0.01517957 -0.01281362  0.01668604 -0.04149311 -0.0583118   0.03681894
   0.04554231 -0.00387828 -0.02529059  0.00588422 -0.0810186  -0.08073502
   0.00220337  0.02297156 -0.02113208 -0.01320533 -0.03382     0.00934649
   0.08976899 -0.01622188 -0.05833168  0.01340196  0.02134469 -0.07283252
  -0.01230493 -0.03719757 -0.04737397 -0.00105348 -0.02014168 -0.04044725
  -0.03376176 -0.08549416 -0.03415827 -0.02946823  0.0567629   0.00969299
  -0.05161325  0.00598442  0.04665911 -0.04259302 -0.03100142 -0.03647018
  -0.03390839 -0.04676677]]