Key: dense_1/dense_1/bias:0
Value shape: (128,)
Value:
[ 2.64963750e-02 -2.59035639e-02 -1.29127433e-03 -5.49649969e-02
 -5.64781018e-03 -3.29209417e-02 -7.65125779e-03  0.00000000e+00
  1.01168901e-01 -4.71060351e-03  4.82148752e-02  1.17262281e-01
 -8.62415507e-02 -1.35417550e-03 -1.56394206e-02 -3.95155512e-03
  9.52116738e-04 -3.86691676e-03 -1.15704164e-03 -1.63552619e-03
 -1.39603876e-02 -3.45392898e-03 -5.56361629e-03 -2.69587655e-02
  1.15947518e-03 -1.07696978e-02 -5.24891308e-04  4.61032242e-02
 -5.83420135e-03  0.00000000e+00 -1.70080494e-02 -1.71180051e-02
  3.47590111e-02  9.05873626e-02 -2.28387398e-05 -9.93564376e-04
 -1.01488186e-02  2.73314398e-02  1.00622773e-01 -4.07792581e-03
 -1.05217900e-02  3.06172427e-02 -9.74960160e-03 -1.42373564e-03
 -6.46463484e-02  1.54759645e-01 -1.50240361e-04 -1.25123495e-02
  5.40381260e-02  0.00000000e+00  3.71278287e-03 -5.59347831e-02
  0.00000000e+00 -5.11731766e-03 -1.05176901e-03 -2.23223725e-03
  5.97320385e-02  3.06098482e-05 -3.39140301e-03 -4.05008011e-02
 -6.81686588e-03 -1.03737628e-02  2.09991890e-03 -1.02486124e-03
  3.24746110e-02 -1.75465997e-02 -9.80004948e-03  6.44872189e-02
 -3.96706797e-02  4.37009323e-04 -1.71285700e-02  1.40969694e-01
 -4.51286174e-02  1.12195678e-01 -1.00225955e-01  0.00000000e+00
 -3.40317637e-02 -9.08826292e-03  1.90533251e-02  7.97769893e-03
 -1.50707355e-02  1.26953140e-01  2.68561509e-03  1.66512083e-03
 -8.37988313e-03 -6.21714455e-04  0.00000000e+00 -2.29593534e-02
  2.98472121e-02 -3.90749015e-02 -2.91635282e-02 -1.82733797e-02
  1.63533330e-01 -1.48300491e-02 -1.24637885e-02  1.30055461e-03
 -3.90342996e-03 -9.42541566e-03  3.71869421e-03  4.19648662e-02
 -7.89496489e-03 -5.78064378e-03  1.80351443e-03 -3.87157425e-02
 -2.95395609e-02 -3.52181727e-03 -2.56102979e-02  2.93328594e-02
 -3.60288750e-03 -1.29685290e-02 -8.02636892e-03  2.45210491e-02
 -1.71204377e-02 -2.30258494e-03 -1.29037909e-02 -2.00820789e-02
 -4.91118152e-03 -8.19279533e-03  8.59526247e-02 -2.24379767e-02
 -1.44277383e-02 -7.44589604e-03  2.41979454e-02 -8.15668255e-02
 -1.38976621e-02  9.56846699e-02  5.45309409e-02 -6.85799196e-02]
Flattened value shape: (1, 128)
Flattened value:
[[ 2.64963750e-02 -2.59035639e-02 -1.29127433e-03 -5.49649969e-02
  -5.64781018e-03 -3.29209417e-02 -7.65125779e-03  0.00000000e+00
   1.01168901e-01 -4.71060351e-03  4.82148752e-02  1.17262281e-01
  -8.62415507e-02 -1.35417550e-03 -1.56394206e-02 -3.95155512e-03
   9.52116738e-04 -3.86691676e-03 -1.15704164e-03 -1.63552619e-03
  -1.39603876e-02 -3.45392898e-03 -5.56361629e-03 -2.69587655e-02
   1.15947518e-03 -1.07696978e-02 -5.24891308e-04  4.61032242e-02
  -5.83420135e-03  0.00000000e+00 -1.70080494e-02 -1.71180051e-02
   3.47590111e-02  9.05873626e-02 -2.28387398e-05 -9.93564376e-04
  -1.01488186e-02  2.73314398e-02  1.00622773e-01 -4.07792581e-03
  -1.05217900e-02  3.06172427e-02 -9.74960160e-03 -1.42373564e-03
  -6.46463484e-02  1.54759645e-01 -1.50240361e-04 -1.25123495e-02
   5.40381260e-02  0.00000000e+00  3.71278287e-03 -5.59347831e-02
   0.00000000e+00 -5.11731766e-03 -1.05176901e-03 -2.23223725e-03
   5.97320385e-02  3.06098482e-05 -3.39140301e-03 -4.05008011e-02
  -6.81686588e-03 -1.03737628e-02  2.09991890e-03 -1.02486124e-03
   3.24746110e-02 -1.75465997e-02 -9.80004948e-03  6.44872189e-02
  -3.96706797e-02  4.37009323e-04 -1.71285700e-02  1.40969694e-01
  -4.51286174e-02  1.12195678e-01 -1.00225955e-01  0.00000000e+00
  -3.40317637e-02 -9.08826292e-03  1.90533251e-02  7.97769893e-03
  -1.50707355e-02  1.26953140e-01  2.68561509e-03  1.66512083e-03
  -8.37988313e-03 -6.21714455e-04  0.00000000e+00 -2.29593534e-02
   2.98472121e-02 -3.90749015e-02 -2.91635282e-02 -1.82733797e-02
   1.63533330e-01 -1.48300491e-02 -1.24637885e-02  1.30055461e-03
  -3.90342996e-03 -9.42541566e-03  3.71869421e-03  4.19648662e-02
  -7.89496489e-03 -5.78064378e-03  1.80351443e-03 -3.87157425e-02
  -2.95395609e-02 -3.52181727e-03 -2.56102979e-02  2.93328594e-02
  -3.60288750e-03 -1.29685290e-02 -8.02636892e-03  2.45210491e-02
  -1.71204377e-02 -2.30258494e-03 -1.29037909e-02 -2.00820789e-02
  -4.91118152e-03 -8.19279533e-03  8.59526247e-02 -2.24379767e-02
  -1.44277383e-02 -7.44589604e-03  2.41979454e-02 -8.15668255e-02
  -1.38976621e-02  9.56846699e-02  5.45309409e-02 -6.85799196e-02]]
